{
  "history_steps": 4,
  "scale": [
    11.0,
    11.0,
    5.0
  ],
  "w1": [
    [
      0.00012301533574825743,
      0.02021551085236059,
      -0.03650884815410693,
      -0.08905918387572742,
      0.018955382051783213,
      -0.09916465549964625,
      0.01912399205922886,
      0.13884817225536145,
      -0.05016358625771964,
      0.0750698520039837,
      0.04923520063407619,
      0.10242727204796007,
      0.10497473112722917,
      0.02718566021752158,
      -0.0029251822463273493,
      0.06953031944582878,
      -0.14700163338692004,
      -0.08987041130075177,
      -0.20679193624613046,
      -0.12855307058305088,
      -0.1850254691062909,
      -0.025233901444681475,
      -0.10869280477619503,
      0.004318588663157593,
      0.10041024088172325,
      -0.018693094462995438,
      -0.2516759710820513,
      -0.021811973902110163,
      0.006435716159783788,
      0.011330898600330756,
      -0.15301357655053938,
      -0.08773631701012315
    ],
    [
      -0.09785190780566395,
      -0.02218043846918761,
      0.08432838607932909,
      -0.08075346753318965,
      0.059409400710477005,
      0.0884389867383174,
      0.050880170062152855,
      -0.030908104898053613,
      -0.003294228367655796,
      0.19249311207968664,
      -0.14721552374078625,
      0.07749837606162377,
      0.13462728687558004,
      -0.1570497635131859,
      0.08593826880215982,
      0.011935402569658124,
      -0.07086103150262543,
      0.22207573586597618,
      0.12391239390365848,
      -0.099437823961269,
      -0.009228912829938636,
      0.04554978376915676,
      0.06005953152680165,
      0.06657517857279453,
      -0.005200628809417184,
      0.0667247560834328,
      0.1438522591656152,
      -0.031567236909763985,
      0.08125237502144003,
      -0.046330757653841516,
      0.012726841122583083,
      -0.12627184522114016
    ],
    [
      -0.05793015965026732,
      -0.018481410233766177,
      0.05281647769183307,
      0.1145222007454132,
      -0.11758506836834999,
      -0.07946423659870495,
      0.07461462954992065,
      -0.17024724213574985,
      -0.048297549257556256,
      0.02362821899642478,
      0.34190071232205943,
      0.05867179307748247,
      0.0015731862021443757,
      0.0568296551946767,
      -0.025019540051792494,
      0.15235294004561603,
      -0.05675914954622468,
      0.07161210358513852,
      0.05878857010378397,
      -0.009494012338876626,
      -0.023693439514940535,
      -0.11274268521833644,
      0.031858867082279356,
      -0.03518519492467749,
      0.1579566572963578,
      0.06530885027011639,
      -0.0024143613009932237,
      0.10844909465185187,
      -0.004055536582740963,
      0.10521263584269469,
      -0.0005399560671626606,
      0.02303810392709152
    ],
    [
      -0.12908932453234873,
      0.024629077637783013,
      -0.17795844921336484,
      -0.20353289449399325,
      0.034425677719805876,
      -0.08999276075985953,
      0.029687368274656827,
      0.23013203270296162,
      -0.08410807976532889,
      0.07649731569395975,
      0.02138906596287314,
      0.11731519632400571,
      0.07826757468469464,
      0.10150571251490832,
      0.07024629551205443,
      0.05199076370338984,
      -0.11644037727898557,
      -0.05339073708737136,
      -0.014816914269795941,
      -0.1052832348477144,
      0.025144393635713275,
      -0.08752385971390136,
      0.11552849649944918,
      -0.003866987384842478,
      0.09466377267257206,
      -0.0591028352856274,
      -0.011860982387769404,
      -0.16907549256907925,
      -0.1034805068785474,
      0.036283979918875435,
      -0.21285670418221447,
      0.044676762471272446
    ],
    [
      -0.1746096475373909,
      0.13537864275430145,
      -0.10633114299298604,
      0.07789910843424613,
      0.07644888503463143,
      -0.15368349402914888,
      0.23591789227471446,
      0.12387706783552728,
      -0.020923682688853702,
      0.16175593154149068,
      -0.04177493204359955,
      -0.026880894453837977,
      0.10832718270545154,
      -0.05823905001042934,
      -0.005119041269167658,
      -0.07932964032030437,
      -0.0694845541895416,
      -0.10577413919178894,
      0.17416265366751013,
      0.005242855764046227,
      0.07991452821954569,
      -0.010800015981896999,
      0.01080773243171699,
      -0.03456602370421499,
      -0.05577995887401987,
      0.0007959099184913659,
      -0.03752668396769557,
      0.005354753247292069,
      -0.07639850429698573,
      -0.08068459276211205,
      0.16540575488004303,
      -0.07466991650373303
    ],
    [
      -0.10540937876234929,
      0.033984532387454434,
      0.10335813679364837,
      -0.1454024302481208,
      -0.013357532805055227,
      -0.06320525539349078,
      -0.16665445924493272,
      0.1036569455578894,
      -0.004301239325434439,
      0.043202621409959674,
      0.15788222914703992,
      0.0359139336384198,
      -0.025979524144329615,
      0.08456327239900277,
      -0.11082607921815131,
      -0.12161027602081953,
      0.11953463703184714,
      0.05946604649084557,
      0.050600534434252754,
      -0.0014730693291448679,
      -0.04805577427089284,
      -0.05206103141780549,
      0.09929044804340743,
      -0.020264546935473596,
      0.02874923126901517,
      0.0022221557194479513,
      0.11765083202520016,
      0.10899238847152502,
      0.06724395846774515,
      -0.05635713933532417,
      -0.13819687200064654,
      0.0596311935817466
    ],
    [
      0.09664471342208762,
      -0.024484596984558436,
      0.045003555611954474,
      0.0781443053885405,
      0.14844165182497485,
      0.09213834732464708,
      -0.032086137038920104,
      0.1579958026597546,
      -0.12558884775092205,
      0.226895299253113,
      0.05088666173002984,
      0.15667622808080758,
      0.2852885289990264,
      0.2724278626612571,
      -0.1145176907189325,
      -0.1688671580267857,
      0.06811502324415221,
      -0.14833416805509236,
      -0.02128606323323146,
      0.08389976332288644,
      -0.16520832369889818,
      -0.21272986874064095,
      0.04454838773854473,
      -0.019036117007639082,
      0.06215458376660838,
      0.0038534763770218163,
      -0.08605156073672798,
      -0.12203842116724582,
      -0.008655201089750524,
      -0.09717086910493918,
      -0.1643481322411107,
      0.010562571530075567
    ],
    [
      -0.006139862842217581,
      0.10137608510628698,
      -0.12073064896108103,
      -0.06580587918366579,
      -0.035834484981247305,
      -0.08866418670580482,
      0.13232655483331143,
      -0.09915908891053844,
      0.021262149140681703,
      0.22618447483334927,
      0.17560668215318223,
      -0.06789254487089427,
      0.08699184800079453,
      -0.014547322129258267,
      -0.0014029730130996941,
      -0.14498638219066112,
      -0.05306552481749619,
      0.0962691916032509,
      0.04099350241196894,
      0.028919755251286414,
      -0.04574409819288528,
      0.10331188144650766,
      0.07942024096883205,
      -0.22212532599503818,
      -0.07019575604402063,
      -0.19687966070802432,
      -0.32514384154965387,
      -0.018328228077589607,
      0.19534481619202662,
      0.004711990613059293,
      -0.11725457074049794,
      -0.10161663941703597
    ],
    [
      0.11306132302500088,
      0.015122666558256295,
      -0.03285746740531165,
      -0.005346178883805719,
      0.003924365091166663,
      0.08054056469437984,
      0.06419248595685528,
      0.05290770439966467,
      -0.10625262360923989,
      0.08981720890381753,
      0.181765521568614,
      0.10050618192324776,
      -0.10566613021406103,
      0.09032980469126994,
      -0.0007358286291270949,
      -0.13246455506441365,
      0.15815031897419726,
      0.26455519632199126,
      -0.026982966231772085,
      0.07842056646596403,
      0.0339248997803947,
      -0.2625628898093583,
      0.06460439096956413,
      0.0045625361784055645,
      0.05482610083597063,
      -0.10768749198271783,
      -0.026934704622040492,
      0.022508458880175747,
      0.146911999857344,
      0.03344270603910143,
      -0.000555503020266377,
      0.11756112108494551
    ],
    [
      -0.05552479297636473,
      -0.04972973399295712,
      -0.19090637580226813,
      0.15691058462836124,
      0.16220662210329026,
      0.09168480445117078,
      0.08056371169281504,
      0.01836649748837031,
      0.020621209209381305,
      0.11736268868139911,
      -0.01821037306133415,
      0.07605122406230529,
      0.250052637034948,
      0.18145053522670482,
      -0.0058460125758861455,
      -0.057939205044339616,
      -0.07757389358196587,
      0.11208363791521453,
      0.028917728848984952,
      0.006448718624717702,
      -0.03544196036025578,
      -0.11264215638314544,
      0.01223450416415801,
      0.06356035076946003,
      0.04848903293758025,
      -0.022724258300056012,
      -0.02210343514389784,
      0.03887310967179149,
      -0.15294756491242342,
      -0.023539835196509103,
      -0.08543955181540715,
      0.04843314647425889
    ],
    [
      -0.07705986765648598,
      0.11944788081203345,
      0.13062525464314173,
      -0.03135962612816255,
      0.004637033337776566,
      0.01914322591260928,
      0.11435475292817657,
      -0.12079756312712872,
      0.031749101806758204,
      0.396799481024985,
      -0.053854469905411186,
      0.05183928913855161,
      -0.10654768021775048,
      0.02464648999255725,
      -0.12469762247076283,
      -0.11069310243514836,
      0.1207525478164097,
      -0.0686492913700825,
      0.15817179051634359,
      0.1734100194164492,
      0.009269521587267179,
      0.04318330692358193,
      0.2781001630665753,
      -0.021944249778869593,
      -0.061529175834319404,
      -0.13532310647829418,
      0.004170708034634636,
      0.18193916039663047,
      0.15848433729558392,
      -0.09420912414179575,
      -0.08553753838325961,
      -0.057969552982921405
    ],
    [
      0.02922680824953417,
      -0.022064378848613442,
      -0.016487182570299408,
      0.029673937804544734,
      -0.03720783826824808,
      -0.004017394160294374,
      0.029074533768638076,
      0.024103441120677433,
      0.04837375007681497,
      0.22844913011117282,
      0.3264051232940898,
      -0.002588174301903207,
      -0.1536984483912687,
      0.14813623399492754,
      -0.19466784117672076,
      -0.1409034086156122,
      0.07141687926749452,
      0.19750451326604815,
      0.0023361269702232017,
      -0.17040767589582703,
      -0.04108072468918409,
      -0.0690303130587581,
      0.10652207716157262,
      0.2372542372497683,
      0.07083259788256503,
      -0.07793111280321169,
      -0.11705515303032202,
      0.03415462781574558,
      0.009572868561938603,
      -0.11515191595274717,
      0.01163552356921842,
      -0.15043336827960319
    ]
  ],
  "b1": [
    0.0,
    0.011998400106987876,
    -0.039051030150780694,
    0.0,
    0.10886026326281881,
    0.0,
    -0.021668899257300492,
    0.004770438591894478,
    -0.017207062022770794,
    -0.07056637484222775,
    0.000593807267620944,
    -0.04180538630319479,
    0.10236333594758551,
    0.09610858092834368,
    0.0,
    0.0,
    0.02708834518078225,
    0.08383094276120662,
    0.13196451864223005,
    0.030282237095362242,
    -0.020297730281095036,
    -0.014048435833166608,
    -0.03600703085996745,
    0.012109548027946612,
    0.08121442182186915,
    0.0,
    0.0,
    0.17176117759396112,
    0.15084136880410134,
    0.0,
    0.0,
    -0.0545208812151986
  ],
  "w2": [
    [
      0.11121072717293008,
      0.10626506057881553,
      0.10847512652964209
    ],
    [
      -0.051817470991560234,
      0.16915034902175338,
      -0.01847239527929363
    ],
    [
      -0.06280568467501771,
      -0.0227804177295615,
      -0.08899489014303666
    ],
    [
      -0.14438636958951212,
      0.07943147908760458,
      -0.019123540391952007
    ],
    [
      0.09264425666670484,
      0.08793711243370735,
      -0.2452558687939625
    ],
    [
      -0.0784130073815894,
      0.017533484346507068,
      0.0392094786665573
    ],
    [
      0.041393578472253674,
      0.28659787587862107,
      0.0030348900653136197
    ],
    [
      0.15592777589577003,
      -0.10782900424727686,
      0.03905746603211304
    ],
    [
      0.04586994448615554,
      -0.18900438404552447,
      0.13438129653677997
    ],
    [
      0.28769835376594316,
      0.4939121089103573,
      0.12855358307236095
    ],
    [
      0.06819363582203519,
      -0.12898827720365919,
      0.5553706619372322
    ],
    [
      0.20435181177964107,
      0.11178871747219031,
      0.03403749664216889
    ],
    [
      0.25663587674662247,
      -0.07842605430735079,
      -0.2386774950675465
    ],
    [
      0.27770751438883007,
      -0.25783920658600973,
      0.15631007131314842
    ],
    [
      0.03372378158484627,
      -0.10439509249842559,
      -0.05015972714256735
    ],
    [
      -0.04590656767054133,
      -0.004951933794250218,
      -0.053614396594309235
    ],
    [
      -0.12544959148374984,
      -0.0361461060441125,
      0.0031465767165497036
    ],
    [
      -0.2197010172734522,
      0.01916858280725225,
      0.2870974864021042
    ],
    [
      -0.25969267093258713,
      0.1414553140781525,
      -0.06574016947028011
    ],
    [
      -0.10639428592595733,
      0.08779371954928561,
      -0.06383650891507128
    ],
    [
      0.14863405243169364,
      -0.07611565653918025,
      0.038171340689317955
    ],
    [
      -0.03296170570630599,
      -0.06505706697855142,
      0.04763081060680668
    ],
    [
      0.04664319510639808,
      0.2236013117284177,
      0.126552628839518
    ],
    [
      -0.089170390201968,
      -0.05077485507925544,
      0.0464725619135917
    ],
    [
      0.146024179956856,
      -0.19999954354032737,
      0.07231395898233736
    ],
    [
      -0.1721878730230039,
      0.06514930603433157,
      -0.10814829746406458
    ],
    [
      -0.18063595210836056,
      -0.00592168342747372,
      0.11056849586628464
    ],
    [
      -0.23753386068208512,
      -0.11053031867665143,
      -0.034987539748391056
    ],
    [
      -0.2590950514849526,
      0.09985085856647025,
      -0.023609768481443534
    ],
    [
      -0.07215147364602022,
      0.05833053986823111,
      -0.07555146309686843
    ],
    [
      0.043278009778072224,
      -0.09713851718820432,
      -0.12121385142152895
    ],
    [
      -0.16633690977865323,
      0.1824828344942765,
      -0.01651323026552088
    ]
  ],
  "b2": [
    0.10331431147722103,
    0.08000015142703727,
    0.03873423588387599
  ]
}